{
  "net.0.weight": [
    [
      0.30651748180389404,
      -2.009550094604492,
      -1.6833807229995728,
      2.0263888835906982,
      0.23088470101356506,
      1.9971686601638794,
      3.285893440246582,
      -1.141292691230774,
      0.037154123187065125,
      0.45865753293037415,
      -2.470763921737671,
      -0.145429328083992,
      0.7550166249275208,
      0.8436199426651001,
      -1.1020493507385254,
      -0.4402227997779846,
      -3.817430019378662,
      -0.2616913318634033,
      1.1614453792572021,
      0.6735163331031799,
      1.475849986076355,
      -2.121974229812622,
      -1.2791422605514526,
      -0.8558570146560669,
      0.09756114333868027,
      2.093130350112915,
      -5.810386937810108e-05,
      -0.3301778733730316,
      -3.2557859420776367,
      -2.5666215419769287,
      0.559953510761261,
      -0.30520641803741455
    ],
    [
      1.0373197793960571,
      1.7104508876800537,
      -0.3506569564342499,
      -0.1030016764998436,
      -0.1968126893043518,
      0.5570959448814392,
      0.2728476822376251,
      1.428979754447937,
      -0.6479718685150146,
      -0.7805065512657166,
      -1.0816664695739746,
      -0.984808623790741,
      -0.9632130265235901,
      0.7909961342811584,
      0.17638473212718964,
      0.4410107731819153,
      2.378781318664551,
      -0.7470188140869141,
      -0.133669912815094,
      -2.1331934928894043,
      -0.24111595749855042,
      0.4632181227207184,
      -0.6566352248191833,
      0.9284871220588684,
      0.3826034367084503,
      0.35027191042900085,
      0.12448190897703171,
      -2.32388973236084,
      1.2819585800170898,
      -2.4489967823028564,
      1.5037132501602173,
      1.3840373754501343
    ],
    [
      -0.947918176651001,
      -1.3972026109695435,
      -0.04223399981856346,
      -0.642882764339447,
      -0.6111330986022949,
      -0.10622785985469818,
      0.4024645984172821,
      0.14984272420406342,
      -1.4971085786819458,
      0.26166683435440063,
      -0.9261966347694397,
      -1.7660701274871826,
      -0.53568434715271,
      1.6494011878967285,
      0.8145188689231873,
      2.465191125869751,
      -1.7900605201721191,
      -1.1688449382781982,
      1.9595215320587158,
      0.16317683458328247,
      -0.02369299717247486,
      -0.529461145401001,
      -1.0362905263900757,
      -0.139072448015213,
      -0.9960184693336487,
      -0.6833804249763489,
      0.2707892656326294,
      0.726879358291626,
      -1.632448434829712,
      1.4966362714767456,
      -0.9299498796463013,
      -0.6790205836296082
    ],
    [
      0.6664827466011047,
      0.9306433796882629,
      -0.04690539091825485,
      -0.934962272644043,
      -0.12378714233636856,
      -1.670350432395935,
      -0.49482694268226624,
      1.6258139610290527,
      -0.9868049621582031,
      1.247178316116333,
      -0.8347023725509644,
      -1.0284491777420044,
      -3.176353693008423,
      0.813567578792572,
      -0.39636287093162537,
      1.0285561084747314,
      0.3781101107597351,
      -3.0211548805236816,
      1.4894407987594604,
      -1.3835163116455078,
      -0.24251845479011536,
      0.5374795794487,
      -0.9212655425071716,
      0.8129980564117432,
      -0.20463275909423828,
      -0.7583231329917908,
      -2.0977072715759277,
      -1.4207465648651123,
      0.7630729079246521,
      -0.5450942516326904,
      0.5636677742004395,
      0.6210086345672607
    ],
    [
      -2.328446626663208,
      -0.9655306339263916,
      0.6419104337692261,
      -0.31298336386680603,
      -1.3817883729934692,
      0.03797461837530136,
      -0.38159722089767456,
      -0.6224365234375,
      -1.8769340515136719,
      1.324461817741394,
      0.07846938073635101,
      -1.008345127105713,
      -0.7812527418136597,
      -2.217078685760498,
      -0.8953273296356201,
      1.3305224180221558,
      -1.1848218441009521,
      -0.31857478618621826,
      -1.3399335145950317,
      -0.37597259879112244,
      -2.1082701683044434,
      -0.16302010416984558,
      -0.09013162553310394,
      -3.143869400024414,
      -4.736466407775879,
      -0.20478776097297668,
      0.08578617870807648,
      1.1370346546173096,
      -0.8982551097869873,
      1.5478094816207886,
      -1.0305912494659424,
      -0.6012896299362183
    ],
    [
      -1.6109002828598022,
      -0.14341413974761963,
      -0.17242243885993958,
      1.2016316652297974,
      0.9237192869186401,
      -1.4354385137557983,
      -19.539691925048828,
      -3.163177490234375,
      -1.2278374433517456,
      -0.3064626157283783,
      -1.08506441116333,
      -0.8353477716445923,
      0.9905774593353271,
      1.765957236289978,
      -1.2882990837097168,
      -0.6985462307929993,
      1.1075232028961182,
      -0.8660311102867126,
      1.263331651687622,
      1.583263874053955,
      1.5432740449905396,
      -0.8838968276977539,
      -2.5444254875183105,
      -1.780576467514038,
      -0.29079851508140564,
      2.0784175395965576,
      1.3590216636657715,
      -1.8361409902572632,
      0.19383621215820312,
      -5.942748546600342,
      -0.32130420207977295,
      -1.371743083000183
    ]
  ],
  "net.1.weight": [
    [
      -0.8960374593734741,
      -0.8535289764404297,
      -0.8976706862449646
    ],
    [
      -1.4352778196334839,
      -1.3345277309417725,
      -1.3593083620071411
    ],
    [
      0.05797835439443588,
      -0.07008916139602661,
      -0.45154309272766113
    ],
    [
      -0.5061261057853699,
      -0.5380023717880249,
      -0.4046664834022522
    ],
    [
      -0.18484993278980255,
      -0.2071758359670639,
      0.5154250860214233
    ],
    [
      1.3292440176010132,
      1.1925058364868164,
      1.483932375907898
    ],
    [
      -6.573605060577393,
      -6.576972007751465,
      -6.4885334968566895
    ],
    [
      -1.3425465822219849,
      -1.2187880277633667,
      -1.1686187982559204
    ],
    [
      -0.8499252200126648,
      -0.664039671421051,
      -0.48503145575523376
    ],
    [
      0.5836122632026672,
      0.6368904709815979,
      0.7408133149147034
    ],
    [
      -0.677420437335968,
      -0.6117905378341675,
      -0.45257219672203064
    ],
    [
      -0.9295444488525391,
      -0.8320002555847168,
      -0.8397270441055298
    ],
    [
      -1.6323579549789429,
      -1.524971842765808,
      -1.1578038930892944
    ],
    [
      -0.7158290147781372,
      -0.8576507568359375,
      -0.753071665763855
    ],
    [
      0.43527379631996155,
      -0.00046626795665360987,
      0.5183216333389282
    ],
    [
      -0.7787211537361145,
      -0.883049726486206,
      -1.0256471633911133
    ],
    [
      1.9306528568267822,
      1.8724790811538696,
      1.964246153831482
    ],
    [
      -2.3087196350097656,
      -2.250764846801758,
      -1.7271080017089844
    ],
    [
      -0.9446470737457275,
      -1.016741156578064,
      -1.1147915124893188
    ],
    [
      -0.53350830078125,
      -0.5354374051094055,
      -0.7962809205055237
    ],
    [
      -0.7287103533744812,
      -0.5119785666465759,
      -0.11611676961183548
    ],
    [
      -0.3794534504413605,
      -0.4217393398284912,
      -0.5796533226966858
    ],
    [
      -1.595238447189331,
      -1.5806063413619995,
      -1.115722894668579
    ],
    [
      0.7065689563751221,
      -0.07451137155294418,
      -0.8704860806465149
    ],
    [
      -1.265103816986084,
      -1.4150092601776123,
      -1.1034644842147827
    ],
    [
      -0.4551275670528412,
      -0.4907815456390381,
      -0.8837889432907104
    ],
    [
      0.22869350016117096,
      0.19911937415599823,
      -0.6505848169326782
    ],
    [
      -2.1365444660186768,
      -2.0307438373565674,
      -1.937395691871643
    ],
    [
      -1.4868513345718384,
      -1.450097918510437,
      -1.6063169240951538
    ],
    [
      -3.3649604320526123,
      -3.196471691131592,
      -3.1843221187591553
    ],
    [
      -0.4086831212043762,
      -0.3336300849914551,
      -0.4830469489097595
    ],
    [
      -0.35338345170021057,
      -0.46877509355545044,
      -0.06473442912101746
    ]
  ],
  "bound": 1.0,
  "cascade": 1
}